digraph Tree {
node [shape=box, style="filled", color="black", fontname="helvetica"] ;
edge [fontname="helvetica"] ;
0 [label="x[0] <= 1984.79\nsquared_error = 11.414\nsamples = 202\nvalue = 4.757", fillcolor="#f9e0ce"] ;
1 [label="x[0] <= 1975.165\nsquared_error = 8.406\nsamples = 34\nvalue = 10.724", fillcolor="#f0b88f"] ;
0 -> 1 [labeldistance=2.5, labelangle=45, headlabel="True"] ;
2 [label="x[0] <= 1959.5\nsquared_error = 6.303\nsamples = 9\nvalue = 14.694", fillcolor="#eb9d66"] ;
1 -> 2 ;
3 [label="squared_error = 0.81\nsamples = 2\nvalue = 18.934", fillcolor="#e58139"] ;
2 -> 3 ;
4 [label="squared_error = 1.267\nsamples = 7\nvalue = 13.482", fillcolor="#eda672"] ;
2 -> 4 ;
5 [label="x[0] <= 1979.375\nsquared_error = 1.446\nsamples = 25\nvalue = 9.295", fillcolor="#f2c29e"] ;
1 -> 5 ;
6 [label="squared_error = 0.25\nsamples = 14\nvalue = 10.238", fillcolor="#f1bb95"] ;
5 -> 6 ;
7 [label="squared_error = 0.393\nsamples = 11\nvalue = 8.094", fillcolor="#f4caab"] ;
5 -> 7 ;
8 [label="x[0] <= 1996.46\nsquared_error = 3.36\nsamples = 168\nvalue = 3.55", fillcolor="#fae8db"] ;
0 -> 8 [labeldistance=2.5, labelangle=-45, headlabel="False"] ;
9 [label="x[0] <= 1990.375\nsquared_error = 1.085\nsamples = 129\nvalue = 4.399", fillcolor="#f9e2d2"] ;
8 -> 9 ;
10 [label="squared_error = 0.3\nsamples = 56\nvalue = 5.485", fillcolor="#f8dbc7"] ;
9 -> 10 ;
11 [label="squared_error = 0.086\nsamples = 73\nvalue = 3.565", fillcolor="#fae8db"] ;
9 -> 11 ;
12 [label="x[0] <= 1997.875\nsquared_error = 0.616\nsamples = 39\nvalue = 0.742", fillcolor="#fefbf9"] ;
8 -> 12 ;
13 [label="squared_error = 0.172\nsamples = 17\nvalue = 1.534", fillcolor="#fdf6f0"] ;
12 -> 13 ;
14 [label="squared_error = 0.099\nsamples = 22\nvalue = 0.129", fillcolor="#ffffff"] ;
12 -> 14 ;
}